25 32 12 1
-0.309883 0.152348 0.142011 -0.233894 -0.511948 -0.396771 0.269174 -0.0123385 0.123647 -0.0171963 0.000954611 0.0327056 0.13208 0.138849 0.373461 0.167147 0.434979 -0.116901 -0.146553 -0.225828 -0.505164 0.152469 0.0386992 -0.162515 -0.225117 
0.15635 0.0240127 0.0910841 0.0951161 0.0492028 0.230127 -0.0167869 0.0150637 0.417709 0.205836 -0.111827 -0.165611 0.0548369 -0.0931588 0.210724 0.12471 0.0784502 0.199596 0.127418 -0.178469 -0.0141386 0.169255 0.0889094 -0.171938 0.230936 
-0.123472 -0.0328519 0.0260084 0.178516 -0.295276 -0.176053 -0.145768 -0.183647 0.171345 0.226613 -0.317221 0.257867 0.0359287 -0.0508837 0.035954 -0.227947 0.108815 -0.233588 -0.092496 -0.603946 0.14222 -0.126944 -0.0386456 0.139427 0.094187 
0.0803135 0.341507 0.125725 -0.18238 0.398249 0.0473957 -0.0395866 -0.470533 -0.0263724 0.263736 -0.036938 0.0532403 0.0146784 -0.200724 -0.393522 -0.0525608 0.238919 0.0412647 0.148276 0.296811 -0.0483928 0.00775796 -0.181439 0.0112689 0.292183 
-0.179127 0.0889202 0.353977 -0.207606 -0.124411 -0.0205347 -0.0637251 -0.160306 -0.0960762 -0.0951359 -0.299006 0.163045 0.193899 0.0537673 -0.807868 0.170365 -0.226967 0.918165 -0.00257492 -0.0856975 -0.0825923 -0.392165 0.206752 -0.160595 -0.16488 
-0.0203983 0.0160202 -0.0227776 0.289702 -0.0571361 -0.379921 0.115038 0.209807 0.134897 0.0177514 -0.252845 -0.633081 0.483966 0.106122 0.225064 0.32712 0.299535 -0.120539 -0.0677315 0.155495 0.0477997 -0.216796 0.195696 0.168638 0.0467692 
0.289479 0.0669184 0.346595 -0.205892 -0.233525 0.457779 -0.0293814 -0.115058 0.0168063 0.11276 0.32215 0.13447 -0.444367 -0.211781 0.225736 -0.147272 0.0715529 0.0682993 0.500546 0.366206 0.0865494 -0.307723 0.360581 -0.0308139 0.256702 
-0.110196 -0.203814 -0.14291 -0.20409 0.0228163 0.0690399 -0.0548521 0.257501 0.249769 -0.0193321 -0.24387 -0.00969158 -0.0303885 -0.271042 -0.105072 0.441143 0.279881 -0.199088 -0.310903 0.360659 0.200419 0.00961378 0.0280474 -0.312404 0.376405 
-0.468377 -0.339091 -0.015005 0.14652 -0.0633552 0.471476 0.02987 -0.0258682 -0.237144 -0.337461 -0.220628 -0.0554216 -0.193362 -0.20958 -0.117472 -0.165096 -0.0126583 0.166026 -0.104629 -0.15493 0.261841 0.150275 -0.0912026 0.277863 -0.158869 
-0.105672 0.0149786 0.304641 0.436352 -0.123801 0.329257 -0.233098 0.268168 -0.128238 0.341229 -0.0801122 0.226751 0.342253 -0.222373 -0.116339 -0.0834657 -0.20998 0.299708 0.108444 -0.0460468 0.286115 -0.0162458 0.110861 -0.354158 0.11723 
-0.315547 -0.0547709 0.0510428 -0.778476 -0.173521 -0.0830647 0.127957 -0.479253 0.0577178 -0.276339 0.00536592 0.0999995 0.135763 -0.146178 -0.598877 0.529489 0.0129317 -0.176782 0.0652842 0.370394 0.0638773 -0.155288 -0.0497839 0.0363309 -0.101834 
-0.428436 -0.00220429 -0.044031 0.0271972 0.328298 0.0171349 0.162827 -0.122129 -0.0148081 -0.0219801 0.266044 0.613163 -0.306874 -0.109129 -0.00119351 0.120564 0.157636 0.236503 0.158745 0.0430805 -0.0882133 -0.22842 0.346697 0.0385466 -0.312191 
-0.303084 -0.239093 0.282043 -0.30856 0.327903 0.19181 -0.189774 0.128964 -0.207024 0.528847 0.0462683 0.1637 0.564275 -0.0794362 -0.5666 -0.181528 -0.223567 0.259488 0.067275 0.62944 -0.0784775 -0.321746 0.233611 -0.145111 -0.313431 
-0.0970541 0.343877 -0.22351 -0.441691 0.439432 0.233501 -0.0668698 0.12366 -0.0401791 0.130181 -0.44872 0.130308 0.110521 -0.0737973 -0.0671491 -0.0486435 0.506433 0.12315 -0.03063 -0.0522834 0.093455 -0.304782 -0.382374 0.423365 -0.0622263 
0.146792 -0.126867 -0.0370842 0.00764532 -0.340034 0.326906 -0.317054 0.161974 0.166544 0.0118684 -0.140189 -0.269256 0.484315 0.0752167 0.19802 -0.228189 -0.0150996 0.134044 0.453423 -0.401612 0.0794789 0.150501 -0.171618 -0.69763 -0.198014 
-0.0384541 0.15187 0.701279 0.0272837 -0.162003 0.146447 0.310487 -0.121627 0.0980068 0.300418 -0.294435 -0.00482815 -0.124946 0.0418482 0.131831 0.060397 0.135829 -0.564104 0.0134354 0.103293 0.0717794 0.348793 -0.224892 0.0852157 -0.607614 
0.37857 0.197715 -0.202981 0.0852285 0.527643 0.0967049 0.241773 -0.078109 0.036222 0.171439 0.255735 0.141672 -0.124018 0.322295 0.092809 -0.507785 0.156342 -0.814125 -0.299064 -0.0450886 -0.452988 0.355255 0.00507677 0.0107996 -0.135694 
0.23112 0.235408 -0.248381 -0.345126 0.187637 0.187953 0.182485 -0.126592 -0.324283 -0.0260036 -0.107812 0.0311866 -0.0201057 0.489312 -0.0758501 0.109078 0.143781 -0.395352 -0.108979 0.6704 0.0905531 -0.164665 0.0157081 -0.000916375 0.441411 
0.0487779 0.184434 -0.0716968 0.0146337 -0.118965 -0.290578 0.185625 -0.848859 0.151774 0.219328 0.147058 0.00350808 0.0647384 0.380286 0.00175162 -0.22465 0.57719 -0.0644147 0.0753993 0.164489 -0.00167998 -0.474467 -0.0737365 -0.164283 -0.114716 
-0.21952 0.156923 0.244401 -0.244622 0.272754 0.113423 0.114617 0.334883 -0.433925 -0.315425 0.0210729 0.136036 0.0138264 0.0903217 0.0504875 -0.00744854 -0.210194 0.423014 0.0663689 -0.0892828 0.505554 -0.324202 -0.176724 0.107894 0.315509 
-0.0196895 -0.0780753 -0.0665275 0.118483 -0.161684 0.032332 0.0443441 0.0952653 0.0410753 0.0568833 -0.0175641 0.0632442 0.0035271 0.443863 0.240796 -0.329169 0.0673941 0.126574 -0.0037137 -0.11309 0.0465516 0.118297 0.0663658 -0.154295 -0.0829132 
0.386146 -0.288759 -0.51351 0.123439 0.256792 -0.549165 -0.00934089 0.149172 -0.24204 0.0737812 -0.212128 0.0619203 0.0796482 0.115041 -0.219593 0.0821191 -0.273293 -0.109934 -0.0913347 -0.14804 0.0651661 -0.0205803 0.438276 0.0431343 -0.0665804 
-0.149329 -0.0523519 0.361002 -0.0765517 0.170139 -0.0767054 -0.0731741 0.123905 0.0729617 0.46638 0.109739 -0.0155968 0.202061 0.0254854 -0.0539266 -0.102801 -0.166263 -0.340343 0.096205 0.085504 0.233482 -0.321242 0.365469 0.242062 -0.0161764 
0.0365492 0.0706752 -0.188669 0.202589 0.0166374 -0.111706 0.0253922 -0.0491514 -0.00960622 -0.365751 -0.113943 -0.050173 0.10199 0.135643 0.149095 0.134839 0.148704 0.228906 -0.0662561 0.0428065 0.0467581 0.0545852 -0.101915 -0.317535 0.349855 
0.406473 -0.103703 -0.242231 -0.323797 -0.22794 -0.0856114 -0.0535891 -0.007202 -0.101628 -0.298342 0.0399102 -0.119899 0.218663 -0.196151 0.0743699 -0.419589 0.270523 0.0106741 0.124483 0.367855 -0.314278 -0.1099 0.144672 0.16647 -0.00554263 
0.139496 0.0468363 -0.292445 -0.232251 -0.225433 -0.547219 -0.171809 0.120783 0.161009 -0.0916584 0.0849579 0.0332421 -0.0411714 0.316007 -0.00334207 0.222158 0.108293 0.108967 -0.0537109 0.368527 0.40726 0.0577174 -0.0528987 0.00296338 0.0706284 
0.391024 -0.154122 -0.171591 0.0108994 0.162461 0.56734 0.216546 0.165674 -0.146435 0.0237622 0.0642481 0.381674 -0.251211 0.0187737 0.182342 0.145354 0.287677 0.102692 -0.50283 -0.2747 -0.36148 0.311533 -0.120424 0.0400615 0.259425 
0.231964 -0.148662 -0.3025 -0.0832125 0.483162 -0.123992 -0.0724286 0.127194 -0.0767399 0.168364 0.374567 -0.0336302 -0.338516 -0.0985671 -0.0221389 0.0764636 -0.0157756 -0.351714 -0.010918 0.121444 0.896282 -0.25028 -0.311016 -0.016361 -0.135412 
-0.341487 0.106387 -0.0129563 0.297532 0.157309 -0.0433503 0.254754 0.197021 0.0330055 -0.0329134 0.319955 0.0120255 0.157141 -0.151932 -0.00122808 0.143884 0.593124 0.218647 -0.168016 -0.038756 -0.389714 0.0621697 0.0972098 0.25884 0.0990006 
-0.0891153 0.518672 0.339829 -0.146117 0.368375 -0.204504 0.406093 0.345634 -0.217411 0.102034 0.143025 -0.176665 0.124628 -0.0814668 -0.0677369 -0.246391 -0.0268826 -0.285658 0.204591 0.293745 0.171757 0.106187 0.313876 -0.0835665 -0.200339 
-0.136709 0.0463749 0.425206 -0.160096 0.107931 0.0858514 0.239724 -0.185388 0.136771 -0.344806 -0.235254 -0.000462851 -0.377232 -0.247607 -0.216397 0.290269 -0.122042 0.200421 0.571595 0.137945 0.236389 -0.15732 0.0166762 -0.311622 0.0413044 
0.340218 -0.0495137 -0.408732 -0.147048 -0.187695 -0.0738407 -0.0690137 0.0896296 0.0906235 -0.0404279 -0.0553694 0.0889052 0.0292927 -0.111081 0.138142 -0.209326 -0.169353 0.295653 0.311419 0.482939 0.674118 -0.0269011 -0.160575 0.0637525 0.351882 
-0.184116 0.0861033 0.177598 0.170309 -0.050115 -0.0965258 -0.329572 -0.19431 0.224182 0.081464 -0.160286 -0.0224044 -0.112249 0.143024 0.0619482 -0.130934 -0.42977 -0.000904304 -0.0104877 -0.185122 0.0155074 -0.110156 -0.0722324 -0.0321131 0.238659 -0.0968142 -0.0612458 0.459906 0.0522781 0.476261 0.204628 -0.0135862 
0.0547325 -0.0427782 0.0482353 0.0615465 0.00777896 0.0256874 0.236047 0.242315 0.0811054 0.197088 -0.164494 -0.147572 0.0597712 0.326853 -0.332974 -0.28467 0.257584 0.0385133 -0.340577 0.589429 0.163316 -0.201804 0.338527 0.158725 0.0249525 -0.114966 -0.00205065 -0.94469 0.41778 -0.159746 0.13814 -0.132654 
-0.0161135 0.169935 -0.232769 0.259066 -0.0685364 0.887714 0.0242482 -0.0450489 -0.360909 -0.0897394 -0.0671962 0.438365 0.172728 -0.126479 -0.059185 -0.0227163 -0.340853 0.192307 -0.178531 0.119758 -0.0427855 0.167359 0.191796 -0.0438155 -0.354615 0.0487693 -0.638499 0.711668 0.0873965 0.0141793 0.13491 0.466083 
-0.119425 0.0497411 0.120861 -0.284986 -0.0394594 -0.277914 0.318592 -0.114628 0.112165 0.125207 -0.203355 -0.140088 -0.120118 0.226868 -0.307519 0.0322142 0.150871 -0.229458 -0.0913244 0.0957116 -0.116454 0.0873037 0.0594881 0.176317 -0.242142 0.00559272 -0.187121 0.127746 0.0732902 0.223251 0.141721 0.259232 
-0.5023 -0.24861 -0.161247 0.0735301 0.292129 -0.241384 0.143345 0.3437 0.102949 -0.129008 -0.155265 -0.0441795 -0.138541 -0.0660384 0.522072 0.141472 -0.0314409 -0.0738177 -0.069377 -0.142532 -0.169008 0.150331 0.0699666 -0.423507 0.000164935 -0.166325 0.614744 -0.0401374 -0.282352 -0.149785 0.104336 -0.00807132 
0.152233 -0.162787 0.498965 -0.247349 0.231094 -0.0389908 0.168214 -0.0239156 -0.121935 0.253494 -0.041162 -0.0627636 0.171887 0.0850566 0.0870895 -0.00330324 0.00480114 -0.0615112 0.370939 -0.0400769 0.414631 -0.131361 0.13495 -0.184485 -0.327572 0.207648 -0.228112 0.19731 -0.671922 -0.201371 0.0697415 0.311672 
0.043496 -0.197477 -0.0436181 -0.443 -0.417503 0.135824 -0.418681 0.0843276 0.185817 -0.2201 0.302431 0.502119 0.0357457 0.313536 -0.255 0.131445 0.140008 -0.00545725 0.330912 -0.537422 0.105929 0.233106 -0.224379 -0.474724 -0.0437098 0.514905 0.277901 0.60393 0.185178 0.0711912 0.169996 0.108661 
0.0200765 0.17661 -0.152311 -0.0774118 0.0084775 0.278083 0.1361 -0.184001 0.0255139 -0.13989 -0.508914 0.261578 -0.488236 -0.0108797 0.0403028 -0.212782 0.233738 0.0851924 0.292623 -0.172105 -0.407724 0.17993 0.193641 0.312324 0.119081 -0.0335875 -0.19564 0.0207154 -0.653899 -0.0170956 0.219761 -0.271899 
-0.618472 -0.36673 -0.133697 0.411844 0.00437146 -0.227072 -0.305444 0.76287 0.382605 -0.055332 -0.015007 0.00860937 0.290978 -0.271997 0.0435906 -0.286903 -0.147177 0.492101 0.095097 0.259835 0.154323 0.399597 -0.00691847 -0.154355 -0.131622 0.0633798 0.268958 0.0517282 0.105918 0.583873 0.131072 0.0675185 
-0.0027164 0.133471 -0.537916 0.217539 -0.136409 0.0757675 0.184341 0.232141 -0.225346 0.0265035 -0.524767 -0.157824 -0.120847 0.0290857 0.278727 -0.0629425 -0.533426 -0.121861 0.0420146 0.0126627 0.067782 -0.0183321 0.211578 -0.00572662 -0.0483585 -0.0188965 0.0733745 0.140553 0.0454055 -0.170171 -0.114786 0.255961 
-0.0283637 -0.289656 -0.264391 0.063133 0.435986 0.149944 -0.0059834 0.291696 -0.541296 0.373489 -0.154139 0.433284 0.102122 0.0872668 -0.026556 0.114212 0.00105838 -0.637642 0.146334 -0.403943 0.00350331 0.32608 0.0489486 0.316476 0.0227865 0.251018 0.338105 -0.310959 0.0426634 0.108225 0.141861 -0.0668654 
0.46183 -0.0381782 0.352091 0.382598 0.175868 -0.0485113 -0.285544 -0.0263713 0.177085 0.354527 -0.177535 -0.465628 -0.0939103 -0.0349802 -0.313694 0.531683 -0.211358 0.00441648 -0.208966 0.176353 0.0966937 0.263138 0.0354576 -0.0410702 0.041707 -0.264758 0.370511 0.160708 -0.169233 0.328852 -0.0494984 -0.179374 
-0.140601 0.143576 -0.0910716 0.607415 0.0273353 0.156861 0.114729 -0.0190279 0.095368 0.282347 -0.598041 -0.41959 0.177932 0.0278637 0.0285732 -0.00266996 -0.725502 0.473821 -0.167346 -0.0178075 0.134991 0.0637915 -0.00837044 -0.362427 -0.0720254 0.293171 -0.121525 -0.228241 0.223269 0.48155 -0.129012 -0.207911 
-0.120881 -0.0230359 0.341836 -0.265323 -0.214781 0.0400437 0.381722 0.093126 0.103689 -0.596299 0.108717 -0.223816 
-0.097909 -0.236251 -0.182948 -0.0276635 -0.478528 0.325558 0.187484 -0.137546 -0.20045 -0.030641 0.0262996 -0.0207235 
-0.228857 
